digraph Tree {
node [shape=box, style="filled, rounded", color="black", fontname=helvetica] ;
edge [fontname=helvetica] ;
rankdir=LR ;
0 [label=<node &#35;0<br/>Sex &le; 71.5<br/>gini = 0.473<br/>samples = 891<br/>value = [549, 342]>, fillcolor="#e5813960"] ;
1 [label=<node &#35;1<br/>Sex &le; 14.5<br/>gini = 0.3172<br/>samples = 339<br/>value = [272, 67]>, fillcolor="#e58139c0"] ;
0 -> 1 [labeldistance=2.5, labelangle=-45, headlabel="True"] ;
2 [label=<node &#35;2<br/>Sex &le; 10.5<br/>gini = 0.0907<br/>samples = 42<br/>value = [40, 2]>, fillcolor="#e58139f2"] ;
1 -> 2 ;
3 [label=<node &#35;3<br/>Sex &le; 9.5<br/>gini = 0.1327<br/>samples = 28<br/>value = [26, 2]>, fillcolor="#e58139eb"] ;
2 -> 3 ;
4 [label=<node &#35;4<br/>Sex &le; 0.5<br/>gini = 0.074<br/>samples = 26<br/>value = [25, 1]>, fillcolor="#e58139f5"] ;
3 -> 4 ;
5 [label=<node &#35;5<br/>gini = 0.1244<br/>samples = 15<br/>value = [14, 1]>, fillcolor="#e58139ed"] ;
4 -> 5 ;
6 [label=<node &#35;6<br/>gini = 0.0<br/>samples = 11<br/>value = [11, 0]>, fillcolor="#e58139ff"] ;
4 -> 6 ;
7 [label=<node &#35;7<br/>gini = 0.5<br/>samples = 2<br/>value = [1, 1]>, fillcolor="#e5813900"] ;
3 -> 7 ;
8 [label=<node &#35;8<br/>gini = 0.0<br/>samples = 14<br/>value = [14, 0]>, fillcolor="#e58139ff"] ;
2 -> 8 ;
9 [label=<node &#35;9<br/>Sex &le; 38.5<br/>gini = 0.3419<br/>samples = 297<br/>value = [232, 65]>, fillcolor="#e58139b8"] ;
1 -> 9 ;
10 [label=<node &#35;10<br/>Sex &le; 37.5<br/>gini = 0.4107<br/>samples = 142<br/>value = [101, 41]>, fillcolor="#e5813997"] ;
9 -> 10 ;
11 [label=<node &#35;11<br/>Sex &le; 15.5<br/>gini = 0.3925<br/>samples = 138<br/>value = [101, 37]>, fillcolor="#e58139a2"] ;
10 -> 11 ;
12 [label=<node &#35;12<br/>gini = 0.0<br/>samples = 1<br/>value = [0, 1]>, fillcolor="#399de5ff"] ;
11 -> 12 ;
13 [label=<node &#35;13<br/>Sex &le; 26.5<br/>gini = 0.3874<br/>samples = 137<br/>value = [101, 36]>, fillcolor="#e58139a4"] ;
11 -> 13 ;
14 [label=<node &#35;14<br/>Sex &le; 17.5<br/>gini = 0.3157<br/>samples = 56<br/>value = [45, 11]>, fillcolor="#e58139c1"] ;
13 -> 14 ;
15 [label=<node &#35;15<br/>Sex &le; 16.5<br/>gini = 0.3841<br/>samples = 27<br/>value = [20, 7]>, fillcolor="#e58139a6"] ;
14 -> 15 ;
16 [label=<node &#35;16<br/>gini = 0.375<br/>samples = 12<br/>value = [9, 3]>, fillcolor="#e58139aa"] ;
15 -> 16 ;
17 [label=<node &#35;17<br/>gini = 0.3911<br/>samples = 15<br/>value = [11, 4]>, fillcolor="#e58139a2"] ;
15 -> 17 ;
18 [label=<node &#35;18<br/>Sex &le; 19.5<br/>gini = 0.2378<br/>samples = 29<br/>value = [25, 4]>, fillcolor="#e58139d6"] ;
14 -> 18 ;
19 [label=<node &#35;19<br/>Sex &le; 18.5<br/>gini = 0.1327<br/>samples = 14<br/>value = [13, 1]>, fillcolor="#e58139eb"] ;
18 -> 19 ;
20 [label=<node &#35;20<br/>gini = 0.142<br/>samples = 13<br/>value = [12, 1]>, fillcolor="#e58139ea"] ;
19 -> 20 ;
21 [label=<node &#35;21<br/>gini = 0.0<br/>samples = 1<br/>value = [1, 0]>, fillcolor="#e58139ff"] ;
19 -> 21 ;
22 [label=<node &#35;22<br/>Sex &le; 24.5<br/>gini = 0.32<br/>samples = 15<br/>value = [12, 3]>, fillcolor="#e58139bf"] ;
18 -> 22 ;
23 [label=<node &#35;23<br/>Sex &le; 20.5<br/>gini = 0.355<br/>samples = 13<br/>value = [10, 3]>, fillcolor="#e58139b3"] ;
22 -> 23 ;
24 [label=<node &#35;24<br/>gini = 0.4444<br/>samples = 3<br/>value = [2, 1]>, fillcolor="#e581397f"] ;
23 -> 24 ;
25 [label=<node &#35;25<br/>Sex &le; 21.5<br/>gini = 0.32<br/>samples = 10<br/>value = [8, 2]>, fillcolor="#e58139bf"] ;
23 -> 25 ;
26 [label=<node &#35;26<br/>gini = 0.0<br/>samples = 1<br/>value = [1, 0]>, fillcolor="#e58139ff"] ;
25 -> 26 ;
27 [label=<node &#35;27<br/>Sex &le; 22.5<br/>gini = 0.3457<br/>samples = 9<br/>value = [7, 2]>, fillcolor="#e58139b6"] ;
25 -> 27 ;
28 [label=<node &#35;28<br/>gini = 0.375<br/>samples = 4<br/>value = [3, 1]>, fillcolor="#e58139aa"] ;
27 -> 28 ;
29 [label=<node &#35;29<br/>Sex &le; 23.5<br/>gini = 0.32<br/>samples = 5<br/>value = [4, 1]>, fillcolor="#e58139bf"] ;
27 -> 29 ;
30 [label=<node &#35;30<br/>gini = 0.0<br/>samples = 1<br/>value = [1, 0]>, fillcolor="#e58139ff"] ;
29 -> 30 ;
31 [label=<node &#35;31<br/>gini = 0.375<br/>samples = 4<br/>value = [3, 1]>, fillcolor="#e58139aa"] ;
29 -> 31 ;
32 [label=<node &#35;32<br/>gini = 0.0<br/>samples = 2<br/>value = [2, 0]>, fillcolor="#e58139ff"] ;
22 -> 32 ;
33 [label=<node &#35;33<br/>Sex &le; 30.5<br/>gini = 0.4268<br/>samples = 81<br/>value = [56, 25]>, fillcolor="#e581398d"] ;
13 -> 33 ;
34 [label=<node &#35;34<br/>Sex &le; 28.5<br/>gini = 0.464<br/>samples = 41<br/>value = [26, 15]>, fillcolor="#e581396c"] ;
33 -> 34 ;
35 [label=<node &#35;35<br/>Sex &le; 27.5<br/>gini = 0.5<br/>samples = 6<br/>value = [3, 3]>, fillcolor="#e5813900"] ;
34 -> 35 ;
36 [label=<node &#35;36<br/>gini = 0.5<br/>samples = 4<br/>value = [2, 2]>, fillcolor="#e5813900"] ;
35 -> 36 ;
37 [label=<node &#35;37<br/>gini = 0.5<br/>samples = 2<br/>value = [1, 1]>, fillcolor="#e5813900"] ;
35 -> 37 ;
38 [label=<node &#35;38<br/>Sex &le; 29.5<br/>gini = 0.4506<br/>samples = 35<br/>value = [23, 12]>, fillcolor="#e581397a"] ;
34 -> 38 ;
39 [label=<node &#35;39<br/>gini = 0.0<br/>samples = 1<br/>value = [1, 0]>, fillcolor="#e58139ff"] ;
38 -> 39 ;
40 [label=<node &#35;40<br/>gini = 0.4567<br/>samples = 34<br/>value = [22, 12]>, fillcolor="#e5813974"] ;
38 -> 40 ;
41 [label=<node &#35;41<br/>Sex &le; 31.5<br/>gini = 0.375<br/>samples = 40<br/>value = [30, 10]>, fillcolor="#e58139aa"] ;
33 -> 41 ;
42 [label=<node &#35;42<br/>gini = 0.3047<br/>samples = 16<br/>value = [13, 3]>, fillcolor="#e58139c4"] ;
41 -> 42 ;
43 [label=<node &#35;43<br/>Sex &le; 32.5<br/>gini = 0.4132<br/>samples = 24<br/>value = [17, 7]>, fillcolor="#e5813996"] ;
41 -> 43 ;
44 [label=<node &#35;44<br/>gini = 0.0<br/>samples = 1<br/>value = [0, 1]>, fillcolor="#399de5ff"] ;
43 -> 44 ;
45 [label=<node &#35;45<br/>Sex &le; 35.5<br/>gini = 0.3856<br/>samples = 23<br/>value = [17, 6]>, fillcolor="#e58139a5"] ;
43 -> 45 ;
46 [label=<node &#35;46<br/>Sex &le; 34.5<br/>gini = 0.4444<br/>samples = 9<br/>value = [6, 3]>, fillcolor="#e581397f"] ;
45 -> 46 ;
47 [label=<node &#35;47<br/>Sex &le; 33.5<br/>gini = 0.4082<br/>samples = 7<br/>value = [5, 2]>, fillcolor="#e5813999"] ;
46 -> 47 ;
48 [label=<node &#35;48<br/>gini = 0.4444<br/>samples = 6<br/>value = [4, 2]>, fillcolor="#e581397f"] ;
47 -> 48 ;
49 [label=<node &#35;49<br/>gini = 0.0<br/>samples = 1<br/>value = [1, 0]>, fillcolor="#e58139ff"] ;
47 -> 49 ;
50 [label=<node &#35;50<br/>gini = 0.5<br/>samples = 2<br/>value = [1, 1]>, fillcolor="#e5813900"] ;
46 -> 50 ;
51 [label=<node &#35;51<br/>Sex &le; 36.5<br/>gini = 0.3367<br/>samples = 14<br/>value = [11, 3]>, fillcolor="#e58139b9"] ;
45 -> 51 ;
52 [label=<node &#35;52<br/>gini = 0.355<br/>samples = 13<br/>value = [10, 3]>, fillcolor="#e58139b3"] ;
51 -> 52 ;
53 [label=<node &#35;53<br/>gini = 0.0<br/>samples = 1<br/>value = [1, 0]>, fillcolor="#e58139ff"] ;
51 -> 53 ;
54 [label=<node &#35;54<br/>gini = 0.0<br/>samples = 4<br/>value = [0, 4]>, fillcolor="#399de5ff"] ;
10 -> 54 ;
55 [label=<node &#35;55<br/>Sex &le; 40.5<br/>gini = 0.2617<br/>samples = 155<br/>value = [131, 24]>, fillcolor="#e58139d0"] ;
9 -> 55 ;
56 [label=<node &#35;56<br/>Sex &le; 39.5<br/>gini = 0.05<br/>samples = 39<br/>value = [38, 1]>, fillcolor="#e58139f8"] ;
55 -> 56 ;
57 [label=<node &#35;57<br/>gini = 0.0<br/>samples = 1<br/>value = [1, 0]>, fillcolor="#e58139ff"] ;
56 -> 57 ;
58 [label=<node &#35;58<br/>gini = 0.0512<br/>samples = 38<br/>value = [37, 1]>, fillcolor="#e58139f8"] ;
56 -> 58 ;
59 [label=<node &#35;59<br/>Sex &le; 42.5<br/>gini = 0.3179<br/>samples = 116<br/>value = [93, 23]>, fillcolor="#e58139c0"] ;
55 -> 59 ;
60 [label=<node &#35;60<br/>Sex &le; 41.5<br/>gini = 0.4986<br/>samples = 19<br/>value = [10, 9]>, fillcolor="#e5813919"] ;
59 -> 60 ;
61 [label=<node &#35;61<br/>gini = 0.4938<br/>samples = 18<br/>value = [10, 8]>, fillcolor="#e5813933"] ;
60 -> 61 ;
62 [label=<node &#35;62<br/>gini = 0.0<br/>samples = 1<br/>value = [0, 1]>, fillcolor="#399de5ff"] ;
60 -> 62 ;
63 [label=<node &#35;63<br/>Sex &le; 60.5<br/>gini = 0.247<br/>samples = 97<br/>value = [83, 14]>, fillcolor="#e58139d4"] ;
59 -> 63 ;
64 [label=<node &#35;64<br/>Sex &le; 55.5<br/>gini = 0.2137<br/>samples = 74<br/>value = [65, 9]>, fillcolor="#e58139dc"] ;
63 -> 64 ;
65 [label=<node &#35;65<br/>Sex &le; 54.5<br/>gini = 0.2326<br/>samples = 67<br/>value = [58, 9]>, fillcolor="#e58139d7"] ;
64 -> 65 ;
66 [label=<node &#35;66<br/>Sex &le; 52.5<br/>gini = 0.213<br/>samples = 66<br/>value = [58, 8]>, fillcolor="#e58139dc"] ;
65 -> 66 ;
67 [label=<node &#35;67<br/>Sex &le; 51.5<br/>gini = 0.233<br/>samples = 52<br/>value = [45, 7]>, fillcolor="#e58139d7"] ;
66 -> 67 ;
68 [label=<node &#35;68<br/>Sex &le; 44.5<br/>gini = 0.2076<br/>samples = 51<br/>value = [45, 6]>, fillcolor="#e58139dd"] ;
67 -> 68 ;
69 [label=<node &#35;69<br/>Sex &le; 43.5<br/>gini = 0.2355<br/>samples = 44<br/>value = [38, 6]>, fillcolor="#e58139d7"] ;
68 -> 69 ;
70 [label=<node &#35;70<br/>gini = 0.2055<br/>samples = 43<br/>value = [38, 5]>, fillcolor="#e58139dd"] ;
69 -> 70 ;
71 [label=<node &#35;71<br/>gini = 0.0<br/>samples = 1<br/>value = [0, 1]>, fillcolor="#399de5ff"] ;
69 -> 71 ;
72 [label=<node &#35;72<br/>gini = 0.0<br/>samples = 7<br/>value = [7, 0]>, fillcolor="#e58139ff"] ;
68 -> 72 ;
73 [label=<node &#35;73<br/>gini = 0.0<br/>samples = 1<br/>value = [0, 1]>, fillcolor="#399de5ff"] ;
67 -> 73 ;
74 [label=<node &#35;74<br/>Sex &le; 53.5<br/>gini = 0.1327<br/>samples = 14<br/>value = [13, 1]>, fillcolor="#e58139eb"] ;
66 -> 74 ;
75 [label=<node &#35;75<br/>gini = 0.0<br/>samples = 1<br/>value = [1, 0]>, fillcolor="#e58139ff"] ;
74 -> 75 ;
76 [label=<node &#35;76<br/>gini = 0.142<br/>samples = 13<br/>value = [12, 1]>, fillcolor="#e58139ea"] ;
74 -> 76 ;
77 [label=<node &#35;77<br/>gini = 0.0<br/>samples = 1<br/>value = [0, 1]>, fillcolor="#399de5ff"] ;
65 -> 77 ;
78 [label=<node &#35;78<br/>gini = 0.0<br/>samples = 7<br/>value = [7, 0]>, fillcolor="#e58139ff"] ;
64 -> 78 ;
79 [label=<node &#35;79<br/>Sex &le; 68.5<br/>gini = 0.3403<br/>samples = 23<br/>value = [18, 5]>, fillcolor="#e58139b8"] ;
63 -> 79 ;
80 [label=<node &#35;80<br/>Sex &le; 67.5<br/>gini = 0.3878<br/>samples = 19<br/>value = [14, 5]>, fillcolor="#e58139a4"] ;
79 -> 80 ;
81 [label=<node &#35;81<br/>Sex &le; 65.5<br/>gini = 0.3457<br/>samples = 18<br/>value = [14, 4]>, fillcolor="#e58139b6"] ;
80 -> 81 ;
82 [label=<node &#35;82<br/>Sex &le; 61.5<br/>gini = 0.3911<br/>samples = 15<br/>value = [11, 4]>, fillcolor="#e58139a2"] ;
81 -> 82 ;
83 [label=<node &#35;83<br/>gini = 0.5<br/>samples = 2<br/>value = [1, 1]>, fillcolor="#e5813900"] ;
82 -> 83 ;
84 [label=<node &#35;84<br/>Sex &le; 64.5<br/>gini = 0.355<br/>samples = 13<br/>value = [10, 3]>, fillcolor="#e58139b3"] ;
82 -> 84 ;
85 [label=<node &#35;85<br/>Sex &le; 63.5<br/>gini = 0.2975<br/>samples = 11<br/>value = [9, 2]>, fillcolor="#e58139c6"] ;
84 -> 85 ;
86 [label=<node &#35;86<br/>gini = 0.0<br/>samples = 2<br/>value = [2, 0]>, fillcolor="#e58139ff"] ;
85 -> 86 ;
87 [label=<node &#35;87<br/>gini = 0.3457<br/>samples = 9<br/>value = [7, 2]>, fillcolor="#e58139b6"] ;
85 -> 87 ;
88 [label=<node &#35;88<br/>gini = 0.5<br/>samples = 2<br/>value = [1, 1]>, fillcolor="#e5813900"] ;
84 -> 88 ;
89 [label=<node &#35;89<br/>gini = 0.0<br/>samples = 3<br/>value = [3, 0]>, fillcolor="#e58139ff"] ;
81 -> 89 ;
90 [label=<node &#35;90<br/>gini = 0.0<br/>samples = 1<br/>value = [0, 1]>, fillcolor="#399de5ff"] ;
80 -> 90 ;
91 [label=<node &#35;91<br/>gini = 0.0<br/>samples = 4<br/>value = [4, 0]>, fillcolor="#e58139ff"] ;
79 -> 91 ;
92 [label=<node &#35;92<br/>Sex &le; 208.5<br/>gini = 0.5<br/>samples = 552<br/>value = [277, 275]>, fillcolor="#e5813902"] ;
0 -> 92 [labeldistance=2.5, labelangle=45, headlabel="False"] ;
93 [label=<node &#35;93<br/>Sex &le; 204.5<br/>gini = 0.4932<br/>samples = 455<br/>value = [254, 201]>, fillcolor="#e5813935"] ;
92 -> 93 ;
94 [label=<node &#35;94<br/>Sex &le; 187.5<br/>gini = 0.4954<br/>samples = 440<br/>value = [241, 199]>, fillcolor="#e581392c"] ;
93 -> 94 ;
95 [label=<node &#35;95<br/>Sex &le; 174.5<br/>gini = 0.4885<br/>samples = 403<br/>value = [232, 171]>, fillcolor="#e5813943"] ;
94 -> 95 ;
96 [label=<node &#35;96<br/>Sex &le; 167.5<br/>gini = 0.4923<br/>samples = 370<br/>value = [208, 162]>, fillcolor="#e5813938"] ;
95 -> 96 ;
97 [label=<node &#35;97<br/>Sex &le; 162.5<br/>gini = 0.49<br/>samples = 354<br/>value = [202, 152]>, fillcolor="#e581393f"] ;
96 -> 97 ;
98 [label=<node &#35;98<br/>Sex &le; 103.5<br/>gini = 0.4926<br/>samples = 346<br/>value = [194, 152]>, fillcolor="#e5813937"] ;
97 -> 98 ;
99 [label=<node &#35;99<br/>Sex &le; 90.5<br/>gini = 0.4757<br/>samples = 136<br/>value = [83, 53]>, fillcolor="#e581395c"] ;
98 -> 99 ;
100 [label=<node &#35;100<br/>Sex &le; 87.5<br/>gini = 0.4957<br/>samples = 97<br/>value = [53, 44]>, fillcolor="#e581392b"] ;
99 -> 100 ;
101 [label=<node &#35;101<br/>Sex &le; 83.5<br/>gini = 0.4919<br/>samples = 94<br/>value = [53, 41]>, fillcolor="#e581393a"] ;
100 -> 101 ;
102 [label=<node &#35;102<br/>Sex &le; 78.5<br/>gini = 0.5<br/>samples = 46<br/>value = [23, 23]>, fillcolor="#e5813900"] ;
101 -> 102 ;
103 [label=<node &#35;103<br/>Sex &le; 75.5<br/>gini = 0.4861<br/>samples = 36<br/>value = [21, 15]>, fillcolor="#e5813949"] ;
102 -> 103 ;
104 [label=<node &#35;104<br/>Sex &le; 73.5<br/>gini = 0.4978<br/>samples = 30<br/>value = [16, 14]>, fillcolor="#e5813920"] ;
103 -> 104 ;
105 [label=<node &#35;105<br/>Sex &le; 72.5<br/>gini = 0.4608<br/>samples = 25<br/>value = [16, 9]>, fillcolor="#e5813970"] ;
104 -> 105 ;
106 [label=<node &#35;106<br/>gini = 0.4688<br/>samples = 24<br/>value = [15, 9]>, fillcolor="#e5813966"] ;
105 -> 106 ;
107 [label=<node &#35;107<br/>gini = 0.0<br/>samples = 1<br/>value = [1, 0]>, fillcolor="#e58139ff"] ;
105 -> 107 ;
108 [label=<node &#35;108<br/>gini = 0.0<br/>samples = 5<br/>value = [0, 5]>, fillcolor="#399de5ff"] ;
104 -> 108 ;
109 [label=<node &#35;109<br/>Sex &le; 76.5<br/>gini = 0.2778<br/>samples = 6<br/>value = [5, 1]>, fillcolor="#e58139cc"] ;
103 -> 109 ;
110 [label=<node &#35;110<br/>gini = 0.0<br/>samples = 4<br/>value = [4, 0]>, fillcolor="#e58139ff"] ;
109 -> 110 ;
111 [label=<node &#35;111<br/>Sex &le; 77.5<br/>gini = 0.5<br/>samples = 2<br/>value = [1, 1]>, fillcolor="#e5813900"] ;
109 -> 111 ;
112 [label=<node &#35;112<br/>gini = 0.0<br/>samples = 1<br/>value = [0, 1]>, fillcolor="#399de5ff"] ;
111 -> 112 ;
113 [label=<node &#35;113<br/>gini = 0.0<br/>samples = 1<br/>value = [1, 0]>, fillcolor="#e58139ff"] ;
111 -> 113 ;
114 [label=<node &#35;114<br/>Sex &le; 81.5<br/>gini = 0.32<br/>samples = 10<br/>value = [2, 8]>, fillcolor="#399de5bf"] ;
102 -> 114 ;
115 [label=<node &#35;115<br/>Sex &le; 80.5<br/>gini = 0.2188<br/>samples = 8<br/>value = [1, 7]>, fillcolor="#399de5db"] ;
114 -> 115 ;
116 [label=<node &#35;116<br/>Sex &le; 79.5<br/>gini = 0.375<br/>samples = 4<br/>value = [1, 3]>, fillcolor="#399de5aa"] ;
115 -> 116 ;
117 [label=<node &#35;117<br/>gini = 0.0<br/>samples = 1<br/>value = [0, 1]>, fillcolor="#399de5ff"] ;
116 -> 117 ;
118 [label=<node &#35;118<br/>gini = 0.4444<br/>samples = 3<br/>value = [1, 2]>, fillcolor="#399de57f"] ;
116 -> 118 ;
119 [label=<node &#35;119<br/>gini = 0.0<br/>samples = 4<br/>value = [0, 4]>, fillcolor="#399de5ff"] ;
115 -> 119 ;
120 [label=<node &#35;120<br/>Sex &le; 82.5<br/>gini = 0.5<br/>samples = 2<br/>value = [1, 1]>, fillcolor="#e5813900"] ;
114 -> 120 ;
121 [label=<node &#35;121<br/>gini = 0.0<br/>samples = 1<br/>value = [1, 0]>, fillcolor="#e58139ff"] ;
120 -> 121 ;
122 [label=<node &#35;122<br/>gini = 0.0<br/>samples = 1<br/>value = [0, 1]>, fillcolor="#399de5ff"] ;
120 -> 122 ;
123 [label=<node &#35;123<br/>Sex &le; 84.5<br/>gini = 0.4688<br/>samples = 48<br/>value = [30, 18]>, fillcolor="#e5813966"] ;
101 -> 123 ;
124 [label=<node &#35;124<br/>gini = 0.0<br/>samples = 1<br/>value = [1, 0]>, fillcolor="#e58139ff"] ;
123 -> 124 ;
125 [label=<node &#35;125<br/>Sex &le; 86.5<br/>gini = 0.4726<br/>samples = 47<br/>value = [29, 18]>, fillcolor="#e5813961"] ;
123 -> 125 ;
126 [label=<node &#35;126<br/>Sex &le; 85.5<br/>gini = 0.4781<br/>samples = 43<br/>value = [26, 17]>, fillcolor="#e5813958"] ;
125 -> 126 ;
127 [label=<node &#35;127<br/>gini = 0.4717<br/>samples = 42<br/>value = [26, 16]>, fillcolor="#e5813962"] ;
126 -> 127 ;
128 [label=<node &#35;128<br/>gini = 0.0<br/>samples = 1<br/>value = [0, 1]>, fillcolor="#399de5ff"] ;
126 -> 128 ;
129 [label=<node &#35;129<br/>gini = 0.375<br/>samples = 4<br/>value = [3, 1]>, fillcolor="#e58139aa"] ;
125 -> 129 ;
130 [label=<node &#35;130<br/>gini = 0.0<br/>samples = 3<br/>value = [0, 3]>, fillcolor="#399de5ff"] ;
100 -> 130 ;
131 [label=<node &#35;131<br/>Sex &le; 100.5<br/>gini = 0.355<br/>samples = 39<br/>value = [30, 9]>, fillcolor="#e58139b3"] ;
99 -> 131 ;
132 [label=<node &#35;132<br/>Sex &le; 95.5<br/>gini = 0.2112<br/>samples = 25<br/>value = [22, 3]>, fillcolor="#e58139dc"] ;
131 -> 132 ;
133 [label=<node &#35;133<br/>Sex &le; 93.5<br/>gini = 0.1327<br/>samples = 14<br/>value = [13, 1]>, fillcolor="#e58139eb"] ;
132 -> 133 ;
134 [label=<node &#35;134<br/>gini = 0.0<br/>samples = 4<br/>value = [4, 0]>, fillcolor="#e58139ff"] ;
133 -> 134 ;
135 [label=<node &#35;135<br/>Sex &le; 94.5<br/>gini = 0.18<br/>samples = 10<br/>value = [9, 1]>, fillcolor="#e58139e3"] ;
133 -> 135 ;
136 [label=<node &#35;136<br/>gini = 0.2449<br/>samples = 7<br/>value = [6, 1]>, fillcolor="#e58139d4"] ;
135 -> 136 ;
137 [label=<node &#35;137<br/>gini = 0.0<br/>samples = 3<br/>value = [3, 0]>, fillcolor="#e58139ff"] ;
135 -> 137 ;
138 [label=<node &#35;138<br/>Sex &le; 96.5<br/>gini = 0.2975<br/>samples = 11<br/>value = [9, 2]>, fillcolor="#e58139c6"] ;
132 -> 138 ;
139 [label=<node &#35;139<br/>gini = 0.4082<br/>samples = 7<br/>value = [5, 2]>, fillcolor="#e5813999"] ;
138 -> 139 ;
140 [label=<node &#35;140<br/>gini = 0.0<br/>samples = 4<br/>value = [4, 0]>, fillcolor="#e58139ff"] ;
138 -> 140 ;
141 [label=<node &#35;141<br/>Sex &le; 101.5<br/>gini = 0.4898<br/>samples = 14<br/>value = [8, 6]>, fillcolor="#e5813940"] ;
131 -> 141 ;
142 [label=<node &#35;142<br/>gini = 0.48<br/>samples = 5<br/>value = [2, 3]>, fillcolor="#399de555"] ;
141 -> 142 ;
143 [label=<node &#35;143<br/>Sex &le; 102.5<br/>gini = 0.4444<br/>samples = 9<br/>value = [6, 3]>, fillcolor="#e581397f"] ;
141 -> 143 ;
144 [label=<node &#35;144<br/>gini = 0.4688<br/>samples = 8<br/>value = [5, 3]>, fillcolor="#e5813966"] ;
143 -> 144 ;
145 [label=<node &#35;145<br/>gini = 0.0<br/>samples = 1<br/>value = [1, 0]>, fillcolor="#e58139ff"] ;
143 -> 145 ;
146 [label=<node &#35;146<br/>Sex &le; 108.5<br/>gini = 0.4984<br/>samples = 210<br/>value = [111, 99]>, fillcolor="#e581391c"] ;
98 -> 146 ;
147 [label=<node &#35;147<br/>Sex &le; 105.5<br/>gini = 0.32<br/>samples = 10<br/>value = [2, 8]>, fillcolor="#399de5bf"] ;
146 -> 147 ;
148 [label=<node &#35;148<br/>gini = 0.0<br/>samples = 3<br/>value = [0, 3]>, fillcolor="#399de5ff"] ;
147 -> 148 ;
149 [label=<node &#35;149<br/>Sex &le; 106.5<br/>gini = 0.4082<br/>samples = 7<br/>value = [2, 5]>, fillcolor="#399de599"] ;
147 -> 149 ;
150 [label=<node &#35;150<br/>gini = 0.5<br/>samples = 4<br/>value = [2, 2]>, fillcolor="#e5813900"] ;
149 -> 150 ;
151 [label=<node &#35;151<br/>gini = 0.0<br/>samples = 3<br/>value = [0, 3]>, fillcolor="#399de5ff"] ;
149 -> 151 ;
152 [label=<node &#35;152<br/>Sex &le; 109.5<br/>gini = 0.496<br/>samples = 200<br/>value = [109, 91]>, fillcolor="#e581392a"] ;
146 -> 152 ;
153 [label=<node &#35;153<br/>gini = 0.3457<br/>samples = 9<br/>value = [7, 2]>, fillcolor="#e58139b6"] ;
152 -> 153 ;
154 [label=<node &#35;154<br/>Sex &le; 117.5<br/>gini = 0.4977<br/>samples = 191<br/>value = [102, 89]>, fillcolor="#e5813921"] ;
152 -> 154 ;
155 [label=<node &#35;155<br/>Sex &le; 113.5<br/>gini = 0.4321<br/>samples = 19<br/>value = [6, 13]>, fillcolor="#399de589"] ;
154 -> 155 ;
156 [label=<node &#35;156<br/>Sex &le; 111.5<br/>gini = 0.4688<br/>samples = 8<br/>value = [5, 3]>, fillcolor="#e5813966"] ;
155 -> 156 ;
157 [label=<node &#35;157<br/>gini = 0.0<br/>samples = 3<br/>value = [0, 3]>, fillcolor="#399de5ff"] ;
156 -> 157 ;
158 [label=<node &#35;158<br/>gini = 0.0<br/>samples = 5<br/>value = [5, 0]>, fillcolor="#e58139ff"] ;
156 -> 158 ;
159 [label=<node &#35;159<br/>Sex &le; 115.5<br/>gini = 0.1653<br/>samples = 11<br/>value = [1, 10]>, fillcolor="#399de5e6"] ;
155 -> 159 ;
160 [label=<node &#35;160<br/>Sex &le; 114.5<br/>gini = 0.32<br/>samples = 5<br/>value = [1, 4]>, fillcolor="#399de5bf"] ;
159 -> 160 ;
161 [label=<node &#35;161<br/>gini = 0.0<br/>samples = 3<br/>value = [0, 3]>, fillcolor="#399de5ff"] ;
160 -> 161 ;
162 [label=<node &#35;162<br/>gini = 0.5<br/>samples = 2<br/>value = [1, 1]>, fillcolor="#e5813900"] ;
160 -> 162 ;
163 [label=<node &#35;163<br/>gini = 0.0<br/>samples = 6<br/>value = [0, 6]>, fillcolor="#399de5ff"] ;
159 -> 163 ;
164 [label=<node &#35;164<br/>Sex &le; 119.5<br/>gini = 0.4932<br/>samples = 172<br/>value = [96, 76]>, fillcolor="#e5813935"] ;
154 -> 164 ;
165 [label=<node &#35;165<br/>gini = 0.0<br/>samples = 4<br/>value = [4, 0]>, fillcolor="#e58139ff"] ;
164 -> 165 ;
166 [label=<node &#35;166<br/>Sex &le; 158.5<br/>gini = 0.4955<br/>samples = 168<br/>value = [92, 76]>, fillcolor="#e581392c"] ;
164 -> 166 ;
167 [label=<node &#35;167<br/>Sex &le; 157.5<br/>gini = 0.4929<br/>samples = 159<br/>value = [89, 70]>, fillcolor="#e5813936"] ;
166 -> 167 ;
168 [label=<node &#35;168<br/>Sex &le; 152.5<br/>gini = 0.4969<br/>samples = 152<br/>value = [82, 70]>, fillcolor="#e5813925"] ;
167 -> 168 ;
169 [label=<node &#35;169<br/>Sex &le; 144.5<br/>gini = 0.491<br/>samples = 134<br/>value = [76, 58]>, fillcolor="#e581393c"] ;
168 -> 169 ;
170 [label=<node &#35;170<br/>Sex &le; 136.5<br/>gini = 0.4996<br/>samples = 107<br/>value = [55, 52]>, fillcolor="#e581390e"] ;
169 -> 170 ;
171 [label=<node &#35;171<br/>Sex &le; 130.5<br/>gini = 0.466<br/>samples = 46<br/>value = [29, 17]>, fillcolor="#e581396a"] ;
170 -> 171 ;
172 [label=<node &#35;172<br/>Sex &le; 125.5<br/>gini = 0.4974<br/>samples = 28<br/>value = [13, 15]>, fillcolor="#399de522"] ;
171 -> 172 ;
173 [label=<node &#35;173<br/>Sex &le; 123.5<br/>gini = 0.4444<br/>samples = 18<br/>value = [12, 6]>, fillcolor="#e581397f"] ;
172 -> 173 ;
174 [label=<node &#35;174<br/>Sex &le; 122.5<br/>gini = 0.497<br/>samples = 13<br/>value = [7, 6]>, fillcolor="#e5813924"] ;
173 -> 174 ;
175 [label=<node &#35;175<br/>Sex &le; 120.5<br/>gini = 0.4898<br/>samples = 7<br/>value = [3, 4]>, fillcolor="#399de540"] ;
174 -> 175 ;
176 [label=<node &#35;176<br/>gini = 0.5<br/>samples = 2<br/>value = [1, 1]>, fillcolor="#e5813900"] ;
175 -> 176 ;
177 [label=<node &#35;177<br/>Sex &le; 121.5<br/>gini = 0.48<br/>samples = 5<br/>value = [2, 3]>, fillcolor="#399de555"] ;
175 -> 177 ;
178 [label=<node &#35;178<br/>gini = 0.4444<br/>samples = 3<br/>value = [1, 2]>, fillcolor="#399de57f"] ;
177 -> 178 ;
179 [label=<node &#35;179<br/>gini = 0.5<br/>samples = 2<br/>value = [1, 1]>, fillcolor="#e5813900"] ;
177 -> 179 ;
180 [label=<node &#35;180<br/>gini = 0.4444<br/>samples = 6<br/>value = [4, 2]>, fillcolor="#e581397f"] ;
174 -> 180 ;
181 [label=<node &#35;181<br/>gini = 0.0<br/>samples = 5<br/>value = [5, 0]>, fillcolor="#e58139ff"] ;
173 -> 181 ;
182 [label=<node &#35;182<br/>Sex &le; 128.5<br/>gini = 0.18<br/>samples = 10<br/>value = [1, 9]>, fillcolor="#399de5e3"] ;
172 -> 182 ;
183 [label=<node &#35;183<br/>Sex &le; 127.5<br/>gini = 0.375<br/>samples = 4<br/>value = [1, 3]>, fillcolor="#399de5aa"] ;
182 -> 183 ;
184 [label=<node &#35;184<br/>gini = 0.0<br/>samples = 3<br/>value = [0, 3]>, fillcolor="#399de5ff"] ;
183 -> 184 ;
185 [label=<node &#35;185<br/>gini = 0.0<br/>samples = 1<br/>value = [1, 0]>, fillcolor="#e58139ff"] ;
183 -> 185 ;
186 [label=<node &#35;186<br/>gini = 0.0<br/>samples = 6<br/>value = [0, 6]>, fillcolor="#399de5ff"] ;
182 -> 186 ;
187 [label=<node &#35;187<br/>Sex &le; 133.5<br/>gini = 0.1975<br/>samples = 18<br/>value = [16, 2]>, fillcolor="#e58139df"] ;
171 -> 187 ;
188 [label=<node &#35;188<br/>Sex &le; 131.5<br/>gini = 0.2778<br/>samples = 12<br/>value = [10, 2]>, fillcolor="#e58139cc"] ;
187 -> 188 ;
189 [label=<node &#35;189<br/>gini = 0.0<br/>samples = 2<br/>value = [2, 0]>, fillcolor="#e58139ff"] ;
188 -> 189 ;
190 [label=<node &#35;190<br/>Sex &le; 132.5<br/>gini = 0.32<br/>samples = 10<br/>value = [8, 2]>, fillcolor="#e58139bf"] ;
188 -> 190 ;
191 [label=<node &#35;191<br/>gini = 0.5<br/>samples = 2<br/>value = [1, 1]>, fillcolor="#e5813900"] ;
190 -> 191 ;
192 [label=<node &#35;192<br/>gini = 0.2188<br/>samples = 8<br/>value = [7, 1]>, fillcolor="#e58139db"] ;
190 -> 192 ;
193 [label=<node &#35;193<br/>gini = 0.0<br/>samples = 6<br/>value = [6, 0]>, fillcolor="#e58139ff"] ;
187 -> 193 ;
194 [label=<node &#35;194<br/>Sex &le; 137.5<br/>gini = 0.4891<br/>samples = 61<br/>value = [26, 35]>, fillcolor="#399de542"] ;
170 -> 194 ;
195 [label=<node &#35;195<br/>gini = 0.0<br/>samples = 2<br/>value = [0, 2]>, fillcolor="#399de5ff"] ;
194 -> 195 ;
196 [label=<node &#35;196<br/>Sex &le; 138.5<br/>gini = 0.493<br/>samples = 59<br/>value = [26, 33]>, fillcolor="#399de536"] ;
194 -> 196 ;
197 [label=<node &#35;197<br/>gini = 0.4995<br/>samples = 31<br/>value = [16, 15]>, fillcolor="#e5813910"] ;
196 -> 197 ;
198 [label=<node &#35;198<br/>Sex &le; 142.5<br/>gini = 0.4592<br/>samples = 28<br/>value = [10, 18]>, fillcolor="#399de571"] ;
196 -> 198 ;
199 [label=<node &#35;199<br/>Sex &le; 139.5<br/>gini = 0.2975<br/>samples = 11<br/>value = [2, 9]>, fillcolor="#399de5c6"] ;
198 -> 199 ;
200 [label=<node &#35;200<br/>gini = 0.4444<br/>samples = 6<br/>value = [2, 4]>, fillcolor="#399de57f"] ;
199 -> 200 ;
201 [label=<node &#35;201<br/>gini = 0.0<br/>samples = 5<br/>value = [0, 5]>, fillcolor="#399de5ff"] ;
199 -> 201 ;
202 [label=<node &#35;202<br/>Sex &le; 143.5<br/>gini = 0.4983<br/>samples = 17<br/>value = [8, 9]>, fillcolor="#399de51c"] ;
198 -> 202 ;
203 [label=<node &#35;203<br/>gini = 0.4978<br/>samples = 15<br/>value = [7, 8]>, fillcolor="#399de520"] ;
202 -> 203 ;
204 [label=<node &#35;204<br/>gini = 0.5<br/>samples = 2<br/>value = [1, 1]>, fillcolor="#e5813900"] ;
202 -> 204 ;
205 [label=<node &#35;205<br/>Sex &le; 146.5<br/>gini = 0.3457<br/>samples = 27<br/>value = [21, 6]>, fillcolor="#e58139b6"] ;
169 -> 205 ;
206 [label=<node &#35;206<br/>Sex &le; 145.5<br/>gini = 0.4444<br/>samples = 9<br/>value = [6, 3]>, fillcolor="#e581397f"] ;
205 -> 206 ;
207 [label=<node &#35;207<br/>gini = 0.32<br/>samples = 5<br/>value = [4, 1]>, fillcolor="#e58139bf"] ;
206 -> 207 ;
208 [label=<node &#35;208<br/>gini = 0.5<br/>samples = 4<br/>value = [2, 2]>, fillcolor="#e5813900"] ;
206 -> 208 ;
209 [label=<node &#35;209<br/>Sex &le; 149.5<br/>gini = 0.2778<br/>samples = 18<br/>value = [15, 3]>, fillcolor="#e58139cc"] ;
205 -> 209 ;
210 [label=<node &#35;210<br/>gini = 0.0<br/>samples = 8<br/>value = [8, 0]>, fillcolor="#e58139ff"] ;
209 -> 210 ;
211 [label=<node &#35;211<br/>Sex &le; 150.5<br/>gini = 0.42<br/>samples = 10<br/>value = [7, 3]>, fillcolor="#e5813992"] ;
209 -> 211 ;
212 [label=<node &#35;212<br/>gini = 0.0<br/>samples = 2<br/>value = [0, 2]>, fillcolor="#399de5ff"] ;
211 -> 212 ;
213 [label=<node &#35;213<br/>Sex &le; 151.5<br/>gini = 0.2188<br/>samples = 8<br/>value = [7, 1]>, fillcolor="#e58139db"] ;
211 -> 213 ;
214 [label=<node &#35;214<br/>gini = 0.0<br/>samples = 5<br/>value = [5, 0]>, fillcolor="#e58139ff"] ;
213 -> 214 ;
215 [label=<node &#35;215<br/>gini = 0.4444<br/>samples = 3<br/>value = [2, 1]>, fillcolor="#e581397f"] ;
213 -> 215 ;
216 [label=<node &#35;216<br/>Sex &le; 155.5<br/>gini = 0.4444<br/>samples = 18<br/>value = [6, 12]>, fillcolor="#399de57f"] ;
168 -> 216 ;
217 [label=<node &#35;217<br/>Sex &le; 153.5<br/>gini = 0.355<br/>samples = 13<br/>value = [3, 10]>, fillcolor="#399de5b3"] ;
216 -> 217 ;
218 [label=<node &#35;218<br/>gini = 0.2778<br/>samples = 6<br/>value = [1, 5]>, fillcolor="#399de5cc"] ;
217 -> 218 ;
219 [label=<node &#35;219<br/>Sex &le; 154.5<br/>gini = 0.4082<br/>samples = 7<br/>value = [2, 5]>, fillcolor="#399de599"] ;
217 -> 219 ;
220 [label=<node &#35;220<br/>gini = 0.5<br/>samples = 2<br/>value = [1, 1]>, fillcolor="#e5813900"] ;
219 -> 220 ;
221 [label=<node &#35;221<br/>gini = 0.32<br/>samples = 5<br/>value = [1, 4]>, fillcolor="#399de5bf"] ;
219 -> 221 ;
222 [label=<node &#35;222<br/>Sex &le; 156.5<br/>gini = 0.48<br/>samples = 5<br/>value = [3, 2]>, fillcolor="#e5813955"] ;
216 -> 222 ;
223 [label=<node &#35;223<br/>gini = 0.0<br/>samples = 2<br/>value = [2, 0]>, fillcolor="#e58139ff"] ;
222 -> 223 ;
224 [label=<node &#35;224<br/>gini = 0.4444<br/>samples = 3<br/>value = [1, 2]>, fillcolor="#399de57f"] ;
222 -> 224 ;
225 [label=<node &#35;225<br/>gini = 0.0<br/>samples = 7<br/>value = [7, 0]>, fillcolor="#e58139ff"] ;
167 -> 225 ;
226 [label=<node &#35;226<br/>Sex &le; 159.5<br/>gini = 0.4444<br/>samples = 9<br/>value = [3, 6]>, fillcolor="#399de57f"] ;
166 -> 226 ;
227 [label=<node &#35;227<br/>gini = 0.375<br/>samples = 4<br/>value = [1, 3]>, fillcolor="#399de5aa"] ;
226 -> 227 ;
228 [label=<node &#35;228<br/>Sex &le; 160.5<br/>gini = 0.48<br/>samples = 5<br/>value = [2, 3]>, fillcolor="#399de555"] ;
226 -> 228 ;
229 [label=<node &#35;229<br/>gini = 0.0<br/>samples = 1<br/>value = [1, 0]>, fillcolor="#e58139ff"] ;
228 -> 229 ;
230 [label=<node &#35;230<br/>Sex &le; 161.5<br/>gini = 0.375<br/>samples = 4<br/>value = [1, 3]>, fillcolor="#399de5aa"] ;
228 -> 230 ;
231 [label=<node &#35;231<br/>gini = 0.0<br/>samples = 1<br/>value = [0, 1]>, fillcolor="#399de5ff"] ;
230 -> 231 ;
232 [label=<node &#35;232<br/>gini = 0.4444<br/>samples = 3<br/>value = [1, 2]>, fillcolor="#399de57f"] ;
230 -> 232 ;
233 [label=<node &#35;233<br/>gini = 0.0<br/>samples = 8<br/>value = [8, 0]>, fillcolor="#e58139ff"] ;
97 -> 233 ;
234 [label=<node &#35;234<br/>Sex &le; 171.5<br/>gini = 0.4688<br/>samples = 16<br/>value = [6, 10]>, fillcolor="#399de566"] ;
96 -> 234 ;
235 [label=<node &#35;235<br/>Sex &le; 170.5<br/>gini = 0.4938<br/>samples = 9<br/>value = [4, 5]>, fillcolor="#399de533"] ;
234 -> 235 ;
236 [label=<node &#35;236<br/>Sex &le; 168.5<br/>gini = 0.4688<br/>samples = 8<br/>value = [3, 5]>, fillcolor="#399de566"] ;
235 -> 236 ;
237 [label=<node &#35;237<br/>gini = 0.375<br/>samples = 4<br/>value = [1, 3]>, fillcolor="#399de5aa"] ;
236 -> 237 ;
238 [label=<node &#35;238<br/>Sex &le; 169.5<br/>gini = 0.5<br/>samples = 4<br/>value = [2, 2]>, fillcolor="#e5813900"] ;
236 -> 238 ;
239 [label=<node &#35;239<br/>gini = 0.5<br/>samples = 2<br/>value = [1, 1]>, fillcolor="#e5813900"] ;
238 -> 239 ;
240 [label=<node &#35;240<br/>gini = 0.5<br/>samples = 2<br/>value = [1, 1]>, fillcolor="#e5813900"] ;
238 -> 240 ;
241 [label=<node &#35;241<br/>gini = 0.0<br/>samples = 1<br/>value = [1, 0]>, fillcolor="#e58139ff"] ;
235 -> 241 ;
242 [label=<node &#35;242<br/>Sex &le; 173.5<br/>gini = 0.4082<br/>samples = 7<br/>value = [2, 5]>, fillcolor="#399de599"] ;
234 -> 242 ;
243 [label=<node &#35;243<br/>Sex &le; 172.5<br/>gini = 0.32<br/>samples = 5<br/>value = [1, 4]>, fillcolor="#399de5bf"] ;
242 -> 243 ;
244 [label=<node &#35;244<br/>gini = 0.375<br/>samples = 4<br/>value = [1, 3]>, fillcolor="#399de5aa"] ;
243 -> 244 ;
245 [label=<node &#35;245<br/>gini = 0.0<br/>samples = 1<br/>value = [0, 1]>, fillcolor="#399de5ff"] ;
243 -> 245 ;
246 [label=<node &#35;246<br/>gini = 0.5<br/>samples = 2<br/>value = [1, 1]>, fillcolor="#e5813900"] ;
242 -> 246 ;
247 [label=<node &#35;247<br/>Sex &le; 180.5<br/>gini = 0.3967<br/>samples = 33<br/>value = [24, 9]>, fillcolor="#e581399f"] ;
95 -> 247 ;
248 [label=<node &#35;248<br/>Sex &le; 177.5<br/>gini = 0.1975<br/>samples = 18<br/>value = [16, 2]>, fillcolor="#e58139df"] ;
247 -> 248 ;
249 [label=<node &#35;249<br/>Sex &le; 176.5<br/>gini = 0.32<br/>samples = 10<br/>value = [8, 2]>, fillcolor="#e58139bf"] ;
248 -> 249 ;
250 [label=<node &#35;250<br/>gini = 0.0<br/>samples = 7<br/>value = [7, 0]>, fillcolor="#e58139ff"] ;
249 -> 250 ;
251 [label=<node &#35;251<br/>gini = 0.4444<br/>samples = 3<br/>value = [1, 2]>, fillcolor="#399de57f"] ;
249 -> 251 ;
252 [label=<node &#35;252<br/>gini = 0.0<br/>samples = 8<br/>value = [8, 0]>, fillcolor="#e58139ff"] ;
248 -> 252 ;
253 [label=<node &#35;253<br/>Sex &le; 181.5<br/>gini = 0.4978<br/>samples = 15<br/>value = [8, 7]>, fillcolor="#e5813920"] ;
247 -> 253 ;
254 [label=<node &#35;254<br/>gini = 0.0<br/>samples = 1<br/>value = [0, 1]>, fillcolor="#399de5ff"] ;
253 -> 254 ;
255 [label=<node &#35;255<br/>Sex &le; 184.5<br/>gini = 0.4898<br/>samples = 14<br/>value = [8, 6]>, fillcolor="#e5813940"] ;
253 -> 255 ;
256 [label=<node &#35;256<br/>Sex &le; 182.5<br/>gini = 0.375<br/>samples = 4<br/>value = [3, 1]>, fillcolor="#e58139aa"] ;
255 -> 256 ;
257 [label=<node &#35;257<br/>gini = 0.5<br/>samples = 2<br/>value = [1, 1]>, fillcolor="#e5813900"] ;
256 -> 257 ;
258 [label=<node &#35;258<br/>gini = 0.0<br/>samples = 2<br/>value = [2, 0]>, fillcolor="#e58139ff"] ;
256 -> 258 ;
259 [label=<node &#35;259<br/>Sex &le; 185.5<br/>gini = 0.5<br/>samples = 10<br/>value = [5, 5]>, fillcolor="#e5813900"] ;
255 -> 259 ;
260 [label=<node &#35;260<br/>gini = 0.0<br/>samples = 1<br/>value = [0, 1]>, fillcolor="#399de5ff"] ;
259 -> 260 ;
261 [label=<node &#35;261<br/>Sex &le; 186.5<br/>gini = 0.4938<br/>samples = 9<br/>value = [5, 4]>, fillcolor="#e5813933"] ;
259 -> 261 ;
262 [label=<node &#35;262<br/>gini = 0.5<br/>samples = 2<br/>value = [1, 1]>, fillcolor="#e5813900"] ;
261 -> 262 ;
263 [label=<node &#35;263<br/>gini = 0.4898<br/>samples = 7<br/>value = [4, 3]>, fillcolor="#e5813940"] ;
261 -> 263 ;
264 [label=<node &#35;264<br/>Sex &le; 197.5<br/>gini = 0.3682<br/>samples = 37<br/>value = [9, 28]>, fillcolor="#399de5ad"] ;
94 -> 264 ;
265 [label=<node &#35;265<br/>Sex &le; 193.5<br/>gini = 0.3018<br/>samples = 27<br/>value = [5, 22]>, fillcolor="#399de5c5"] ;
264 -> 265 ;
266 [label=<node &#35;266<br/>Sex &le; 188.5<br/>gini = 0.375<br/>samples = 20<br/>value = [5, 15]>, fillcolor="#399de5aa"] ;
265 -> 266 ;
267 [label=<node &#35;267<br/>gini = 0.0<br/>samples = 3<br/>value = [0, 3]>, fillcolor="#399de5ff"] ;
266 -> 267 ;
268 [label=<node &#35;268<br/>Sex &le; 189.5<br/>gini = 0.4152<br/>samples = 17<br/>value = [5, 12]>, fillcolor="#399de595"] ;
266 -> 268 ;
269 [label=<node &#35;269<br/>gini = 0.48<br/>samples = 5<br/>value = [2, 3]>, fillcolor="#399de555"] ;
268 -> 269 ;
270 [label=<node &#35;270<br/>Sex &le; 191.5<br/>gini = 0.375<br/>samples = 12<br/>value = [3, 9]>, fillcolor="#399de5aa"] ;
268 -> 270 ;
271 [label=<node &#35;271<br/>gini = 0.0<br/>samples = 3<br/>value = [0, 3]>, fillcolor="#399de5ff"] ;
270 -> 271 ;
272 [label=<node &#35;272<br/>Sex &le; 192.5<br/>gini = 0.4444<br/>samples = 9<br/>value = [3, 6]>, fillcolor="#399de57f"] ;
270 -> 272 ;
273 [label=<node &#35;273<br/>gini = 0.5<br/>samples = 2<br/>value = [1, 1]>, fillcolor="#e5813900"] ;
272 -> 273 ;
274 [label=<node &#35;274<br/>gini = 0.4082<br/>samples = 7<br/>value = [2, 5]>, fillcolor="#399de599"] ;
272 -> 274 ;
275 [label=<node &#35;275<br/>gini = 0.0<br/>samples = 7<br/>value = [0, 7]>, fillcolor="#399de5ff"] ;
265 -> 275 ;
276 [label=<node &#35;276<br/>Sex &le; 200.5<br/>gini = 0.48<br/>samples = 10<br/>value = [4, 6]>, fillcolor="#399de555"] ;
264 -> 276 ;
277 [label=<node &#35;277<br/>gini = 0.0<br/>samples = 3<br/>value = [3, 0]>, fillcolor="#e58139ff"] ;
276 -> 277 ;
278 [label=<node &#35;278<br/>Sex &le; 202.5<br/>gini = 0.2449<br/>samples = 7<br/>value = [1, 6]>, fillcolor="#399de5d4"] ;
276 -> 278 ;
279 [label=<node &#35;279<br/>gini = 0.0<br/>samples = 3<br/>value = [0, 3]>, fillcolor="#399de5ff"] ;
278 -> 279 ;
280 [label=<node &#35;280<br/>Sex &le; 203.5<br/>gini = 0.375<br/>samples = 4<br/>value = [1, 3]>, fillcolor="#399de5aa"] ;
278 -> 280 ;
281 [label=<node &#35;281<br/>gini = 0.5<br/>samples = 2<br/>value = [1, 1]>, fillcolor="#e5813900"] ;
280 -> 281 ;
282 [label=<node &#35;282<br/>gini = 0.0<br/>samples = 2<br/>value = [0, 2]>, fillcolor="#399de5ff"] ;
280 -> 282 ;
283 [label=<node &#35;283<br/>Sex &le; 205.5<br/>gini = 0.2311<br/>samples = 15<br/>value = [13, 2]>, fillcolor="#e58139d8"] ;
93 -> 283 ;
284 [label=<node &#35;284<br/>gini = 0.0<br/>samples = 7<br/>value = [7, 0]>, fillcolor="#e58139ff"] ;
283 -> 284 ;
285 [label=<node &#35;285<br/>Sex &le; 207.5<br/>gini = 0.375<br/>samples = 8<br/>value = [6, 2]>, fillcolor="#e58139aa"] ;
283 -> 285 ;
286 [label=<node &#35;286<br/>Sex &le; 206.5<br/>gini = 0.4444<br/>samples = 3<br/>value = [1, 2]>, fillcolor="#399de57f"] ;
285 -> 286 ;
287 [label=<node &#35;287<br/>gini = 0.5<br/>samples = 2<br/>value = [1, 1]>, fillcolor="#e5813900"] ;
286 -> 287 ;
288 [label=<node &#35;288<br/>gini = 0.0<br/>samples = 1<br/>value = [0, 1]>, fillcolor="#399de5ff"] ;
286 -> 288 ;
289 [label=<node &#35;289<br/>gini = 0.0<br/>samples = 5<br/>value = [5, 0]>, fillcolor="#e58139ff"] ;
285 -> 289 ;
290 [label=<node &#35;290<br/>Sex &le; 211.5<br/>gini = 0.3618<br/>samples = 97<br/>value = [23, 74]>, fillcolor="#399de5b0"] ;
92 -> 290 ;
291 [label=<node &#35;291<br/>gini = 0.0<br/>samples = 5<br/>value = [0, 5]>, fillcolor="#399de5ff"] ;
290 -> 291 ;
292 [label=<node &#35;292<br/>Sex &le; 212.5<br/>gini = 0.375<br/>samples = 92<br/>value = [23, 69]>, fillcolor="#399de5aa"] ;
290 -> 292 ;
293 [label=<node &#35;293<br/>gini = 0.0<br/>samples = 2<br/>value = [2, 0]>, fillcolor="#e58139ff"] ;
292 -> 293 ;
294 [label=<node &#35;294<br/>Sex &le; 240.5<br/>gini = 0.3578<br/>samples = 90<br/>value = [21, 69]>, fillcolor="#399de5b1"] ;
292 -> 294 ;
295 [label=<node &#35;295<br/>Sex &le; 214.5<br/>gini = 0.3265<br/>samples = 73<br/>value = [15, 58]>, fillcolor="#399de5bd"] ;
294 -> 295 ;
296 [label=<node &#35;296<br/>gini = 0.0<br/>samples = 5<br/>value = [0, 5]>, fillcolor="#399de5ff"] ;
295 -> 296 ;
297 [label=<node &#35;297<br/>Sex &le; 217.5<br/>gini = 0.3439<br/>samples = 68<br/>value = [15, 53]>, fillcolor="#399de5b7"] ;
295 -> 297 ;
298 [label=<node &#35;298<br/>Sex &le; 216.5<br/>gini = 0.4938<br/>samples = 9<br/>value = [4, 5]>, fillcolor="#399de533"] ;
297 -> 298 ;
299 [label=<node &#35;299<br/>Sex &le; 215.5<br/>gini = 0.5<br/>samples = 6<br/>value = [3, 3]>, fillcolor="#e5813900"] ;
298 -> 299 ;
300 [label=<node &#35;300<br/>gini = 0.5<br/>samples = 2<br/>value = [1, 1]>, fillcolor="#e5813900"] ;
299 -> 300 ;
301 [label=<node &#35;301<br/>gini = 0.5<br/>samples = 4<br/>value = [2, 2]>, fillcolor="#e5813900"] ;
299 -> 301 ;
302 [label=<node &#35;302<br/>gini = 0.4444<br/>samples = 3<br/>value = [1, 2]>, fillcolor="#399de57f"] ;
298 -> 302 ;
303 [label=<node &#35;303<br/>Sex &le; 238.5<br/>gini = 0.3034<br/>samples = 59<br/>value = [11, 48]>, fillcolor="#399de5c5"] ;
297 -> 303 ;
304 [label=<node &#35;304<br/>Sex &le; 236.5<br/>gini = 0.3244<br/>samples = 54<br/>value = [11, 43]>, fillcolor="#399de5be"] ;
303 -> 304 ;
305 [label=<node &#35;305<br/>Sex &le; 231.5<br/>gini = 0.2825<br/>samples = 47<br/>value = [8, 39]>, fillcolor="#399de5cb"] ;
304 -> 305 ;
306 [label=<node &#35;306<br/>Sex &le; 227.5<br/>gini = 0.327<br/>samples = 34<br/>value = [7, 27]>, fillcolor="#399de5bd"] ;
305 -> 306 ;
307 [label=<node &#35;307<br/>Sex &le; 222.5<br/>gini = 0.2268<br/>samples = 23<br/>value = [3, 20]>, fillcolor="#399de5d9"] ;
306 -> 307 ;
308 [label=<node &#35;308<br/>Sex &le; 221.5<br/>gini = 0.32<br/>samples = 10<br/>value = [2, 8]>, fillcolor="#399de5bf"] ;
307 -> 308 ;
309 [label=<node &#35;309<br/>Sex &le; 219.5<br/>gini = 0.2188<br/>samples = 8<br/>value = [1, 7]>, fillcolor="#399de5db"] ;
308 -> 309 ;
310 [label=<node &#35;310<br/>gini = 0.0<br/>samples = 3<br/>value = [0, 3]>, fillcolor="#399de5ff"] ;
309 -> 310 ;
311 [label=<node &#35;311<br/>Sex &le; 220.5<br/>gini = 0.32<br/>samples = 5<br/>value = [1, 4]>, fillcolor="#399de5bf"] ;
309 -> 311 ;
312 [label=<node &#35;312<br/>gini = 0.5<br/>samples = 2<br/>value = [1, 1]>, fillcolor="#e5813900"] ;
311 -> 312 ;
313 [label=<node &#35;313<br/>gini = 0.0<br/>samples = 3<br/>value = [0, 3]>, fillcolor="#399de5ff"] ;
311 -> 313 ;
314 [label=<node &#35;314<br/>gini = 0.5<br/>samples = 2<br/>value = [1, 1]>, fillcolor="#e5813900"] ;
308 -> 314 ;
315 [label=<node &#35;315<br/>Sex &le; 224.5<br/>gini = 0.142<br/>samples = 13<br/>value = [1, 12]>, fillcolor="#399de5ea"] ;
307 -> 315 ;
316 [label=<node &#35;316<br/>gini = 0.0<br/>samples = 5<br/>value = [0, 5]>, fillcolor="#399de5ff"] ;
315 -> 316 ;
317 [label=<node &#35;317<br/>Sex &le; 225.5<br/>gini = 0.2188<br/>samples = 8<br/>value = [1, 7]>, fillcolor="#399de5db"] ;
315 -> 317 ;
318 [label=<node &#35;318<br/>gini = 0.375<br/>samples = 4<br/>value = [1, 3]>, fillcolor="#399de5aa"] ;
317 -> 318 ;
319 [label=<node &#35;319<br/>gini = 0.0<br/>samples = 4<br/>value = [0, 4]>, fillcolor="#399de5ff"] ;
317 -> 319 ;
320 [label=<node &#35;320<br/>Sex &le; 229.5<br/>gini = 0.4628<br/>samples = 11<br/>value = [4, 7]>, fillcolor="#399de56d"] ;
306 -> 320 ;
321 [label=<node &#35;321<br/>Sex &le; 228.5<br/>gini = 0.5<br/>samples = 4<br/>value = [2, 2]>, fillcolor="#e5813900"] ;
320 -> 321 ;
322 [label=<node &#35;322<br/>gini = 0.5<br/>samples = 2<br/>value = [1, 1]>, fillcolor="#e5813900"] ;
321 -> 322 ;
323 [label=<node &#35;323<br/>gini = 0.5<br/>samples = 2<br/>value = [1, 1]>, fillcolor="#e5813900"] ;
321 -> 323 ;
324 [label=<node &#35;324<br/>Sex &le; 230.5<br/>gini = 0.4082<br/>samples = 7<br/>value = [2, 5]>, fillcolor="#399de599"] ;
320 -> 324 ;
325 [label=<node &#35;325<br/>gini = 0.375<br/>samples = 4<br/>value = [1, 3]>, fillcolor="#399de5aa"] ;
324 -> 325 ;
326 [label=<node &#35;326<br/>gini = 0.4444<br/>samples = 3<br/>value = [1, 2]>, fillcolor="#399de57f"] ;
324 -> 326 ;
327 [label=<node &#35;327<br/>Sex &le; 234.5<br/>gini = 0.142<br/>samples = 13<br/>value = [1, 12]>, fillcolor="#399de5ea"] ;
305 -> 327 ;
328 [label=<node &#35;328<br/>gini = 0.0<br/>samples = 8<br/>value = [0, 8]>, fillcolor="#399de5ff"] ;
327 -> 328 ;
329 [label=<node &#35;329<br/>Sex &le; 235.5<br/>gini = 0.32<br/>samples = 5<br/>value = [1, 4]>, fillcolor="#399de5bf"] ;
327 -> 329 ;
330 [label=<node &#35;330<br/>gini = 0.4444<br/>samples = 3<br/>value = [1, 2]>, fillcolor="#399de57f"] ;
329 -> 330 ;
331 [label=<node &#35;331<br/>gini = 0.0<br/>samples = 2<br/>value = [0, 2]>, fillcolor="#399de5ff"] ;
329 -> 331 ;
332 [label=<node &#35;332<br/>Sex &le; 237.5<br/>gini = 0.4898<br/>samples = 7<br/>value = [3, 4]>, fillcolor="#399de540"] ;
304 -> 332 ;
333 [label=<node &#35;333<br/>gini = 0.5<br/>samples = 4<br/>value = [2, 2]>, fillcolor="#e5813900"] ;
332 -> 333 ;
334 [label=<node &#35;334<br/>gini = 0.4444<br/>samples = 3<br/>value = [1, 2]>, fillcolor="#399de57f"] ;
332 -> 334 ;
335 [label=<node &#35;335<br/>gini = 0.0<br/>samples = 5<br/>value = [0, 5]>, fillcolor="#399de5ff"] ;
303 -> 335 ;
336 [label=<node &#35;336<br/>Sex &le; 242.5<br/>gini = 0.4567<br/>samples = 17<br/>value = [6, 11]>, fillcolor="#399de574"] ;
294 -> 336 ;
337 [label=<node &#35;337<br/>gini = 0.0<br/>samples = 2<br/>value = [2, 0]>, fillcolor="#e58139ff"] ;
336 -> 337 ;
338 [label=<node &#35;338<br/>Sex &le; 246.5<br/>gini = 0.3911<br/>samples = 15<br/>value = [4, 11]>, fillcolor="#399de5a2"] ;
336 -> 338 ;
339 [label=<node &#35;339<br/>Sex &le; 245.5<br/>gini = 0.4444<br/>samples = 12<br/>value = [4, 8]>, fillcolor="#399de57f"] ;
338 -> 339 ;
340 [label=<node &#35;340<br/>Sex &le; 244.5<br/>gini = 0.375<br/>samples = 8<br/>value = [2, 6]>, fillcolor="#399de5aa"] ;
339 -> 340 ;
341 [label=<node &#35;341<br/>Sex &le; 243.5<br/>gini = 0.4444<br/>samples = 6<br/>value = [2, 4]>, fillcolor="#399de57f"] ;
340 -> 341 ;
342 [label=<node &#35;342<br/>gini = 0.375<br/>samples = 4<br/>value = [1, 3]>, fillcolor="#399de5aa"] ;
341 -> 342 ;
343 [label=<node &#35;343<br/>gini = 0.5<br/>samples = 2<br/>value = [1, 1]>, fillcolor="#e5813900"] ;
341 -> 343 ;
344 [label=<node &#35;344<br/>gini = 0.0<br/>samples = 2<br/>value = [0, 2]>, fillcolor="#399de5ff"] ;
340 -> 344 ;
345 [label=<node &#35;345<br/>gini = 0.5<br/>samples = 4<br/>value = [2, 2]>, fillcolor="#e5813900"] ;
339 -> 345 ;
346 [label=<node &#35;346<br/>gini = 0.0<br/>samples = 3<br/>value = [0, 3]>, fillcolor="#399de5ff"] ;
338 -> 346 ;
}